{"name":"multivariateLinearRegression","weights":[[4.520137497264335,3.4906942388499558,-5.48905502550123,-2.8176631966565187,4.133556992644968,2.833220749368407,8.254676522204035,3.240118655761556,1.8139159282251827,-0.3093520205168896,3.3412239162157373,5.3769931983773365,5.404794293130673,-3.7935416293756474,0.5478761426273193,-0.062486217675613354,2.141626340301892,4.07122702156799,0.4241091409590769,-4.884605174789332,-0.6077851327159445,-0.15490738832114448,3.586535635577848,1.6057655444921397,0.5255462248755483,4.180426316965249,7.158460406444728,2.4637133535407423,1.9536797587561776,3.3908096888565487,4.5598877215409335,-1.3424798548008867,2.1226680064439893,1.8257754974511164,0.00532153739593233,-3.3507643491164885,2.6699070584771625,2.148356825788898,0.34306302972651026],[1.0120823951786035,-0.9620844803457917,-2.5991481432347068,-2.5453960028810183,-1.567298911735079,-0.8209182316073427,0.9976526127365748,0.6418780966335396,-1.9603145077931527,-0.2953232121040783,-0.6606460939569454,4.842116152879734,0.3052076483627896,-2.89153643549651,-2.547886473395408,-1.4766684649705235,-1.8909177976002896,2.2413179721268666,-2.2537142434902986,-1.4020484422860928,-0.9621545682126594,-0.10661187504174452,-4.499762820005997,-2.150669682408375,-1.5488777422799525,2.403624350917947,2.4922478671499677,-1.6559598052172493,2.8816366767330384,-0.5976385686172565,1.685129400418178,-0.620512712699657,-0.5770115382370031,0.1256989504217636,-0.6548935489107174,-4.5771600435042,1.1219587167332865,-1.217164997807699,1.0539802333495762],[-0.3044152603706145,-1.2252846828965493,-0.3240747035271223,-1.201755450755888,7.784769800496594,-7.238603295620152,-0.1628205914255485,-2.8063584900011787,5.3198245476519075,-0.013488640364981874,-1.2703433733499323,-4.46533488013011,3.388823836053913,2.0868200646688253,2.7282516343874903,1.7385169496550552,-1.5000929390407078,-3.624161016920576,-0.7363570098059888,0.31549029310333765,-3.581766500256753,-2.023307318840488,4.575749744848332,5.852958366605593,0.8660221427934047,-8.774783236088417,-2.6566436181269415,-0.9349700756961936,-2.4149834897617506,0.5807321476544658,-2.497515369729701,0.25846185600693106,0.6770368097220842,-1.4745262595267352,0.4663644627568687,-2.0049573866861468,2.4090762605369007,4.314269648085326,0.10011930326920526],[-1.7027969684941269,1.6758084054326137,1.5409195669891549,2.4546194377650696,-5.21378891400011,-6.428155757386131,0.9231134084128367,-7.501288115232114,-2.907353013333841,-2.254340182588211,-3.077782162722457,-2.994047407825509,6.686993383813663,-0.9478076725805389,-5.535258725232451,-4.716172506199335,-3.2478449883935903,6.760489982029676,3.442884333809144,0.9881207420838307,-0.167456084795504,1.5447736674446189,-6.362435204538068,-3.376746256770715,-4.742769463718021,-5.863723047622095,-6.223176634009094,-8.033462910816851,-0.7176074853979463,-6.68220186053814,-8.277032216281512,0.4870662902294005,0.6240601826371464,0.06876808246814958,1.1701888456313208,-1.11071653566257,6.030725905515185,-2.856586088004435,2.640868769341195],[1.1491822720871432,4.792899945250643,3.7226689615979107,5.042945266038978,-1.5955403905807315,-2.704962453629006,5.672268639743177,3.8891053819577417,-2.6116797590786396,0.7765308463532127,0.3900695373752561,1.7763061205680069,2.445780028193903,-1.0622745812358505,0.2823329778613275,-2.8290392484371547,2.7411745689726104,-0.24315520842374894,3.4734178349285383,3.2464789245281223,1.2746120998172976,0.09017873456209241,0.3221129745170983,-2.419097111847384,-1.8193863918688296,7.353635319395458,-1.0395925843662872,-3.1358504052184264,1.0071779444518523,1.6941636422332347,2.85564789520598,-0.6537633252873549,0.08794936472624548,2.1327814193843144,-2.2716131163401,4.150274329649812,-1.202083132691723,-1.7661566260461714,-1.0036064387181873],[4.4274775837373195,4.472902165813635,2.209733620666502,4.712613173112939,3.9231822826582214,3.2656269050771916,3.595120227873493,6.711261469805762,4.4245589437363275,1.223724797606278,2.46619358215271,1.738437995806738,1.5610414124740843,3.89588241690132,5.110112675371933,2.0316772672840817,3.9398203722366087,3.99010990027439,3.666033069842216,1.903781377810272,1.4120308680390747,1.4160212511790813,5.508471114762866,3.8400198766159392,3.4625421990473013,3.893344568333985,4.379102823592343,2.1911284703381995,0.7069583051181878,4.094827618792897,6.0265671846401805,0.6021081289996876,6.112039362994493,2.0676548176517766,0.5311972191218488,1.686695187744283,2.347188194800875,4.616229335125121,0.29238089802167]],"inputs":5,"outputs":39,"intercept":true,"summary":{"regressionStatistics":{"standardError":1.9640544663771344,"observations":39},"variables":[{"label":"X Variable 1","coefficients":[4.520137497264335,3.4906942388499558,-5.48905502550123,-2.8176631966565187,4.133556992644968,2.833220749368407,8.254676522204035,3.240118655761556,1.8139159282251827,-0.3093520205168896,3.3412239162157373,5.3769931983773365,5.404794293130673,-3.7935416293756474,0.5478761426273193,-0.062486217675613354,2.141626340301892,4.07122702156799,0.4241091409590769,-4.884605174789332,-0.6077851327159445,-0.15490738832114448,3.586535635577848,1.6057655444921397,0.5255462248755483,4.180426316965249,7.158460406444728,2.4637133535407423,1.9536797587561776,3.3908096888565487,4.5598877215409335,-1.3424798548008867,2.1226680064439893,1.8257754974511164,0.00532153739593233,-3.3507643491164885,2.6699070584771625,2.148356825788898,0.34306302972651026],"standardError":0.9211273762931489,"tStat":4.907179629656127},{"label":"X Variable 2","coefficients":[1.0120823951786035,-0.9620844803457917,-2.5991481432347068,-2.5453960028810183,-1.567298911735079,-0.8209182316073427,0.9976526127365748,0.6418780966335396,-1.9603145077931527,-0.2953232121040783,-0.6606460939569454,4.842116152879734,0.3052076483627896,-2.89153643549651,-2.547886473395408,-1.4766684649705235,-1.8909177976002896,2.2413179721268666,-2.2537142434902986,-1.4020484422860928,-0.9621545682126594,-0.10661187504174452,-4.499762820005997,-2.150669682408375,-1.5488777422799525,2.403624350917947,2.4922478671499677,-1.6559598052172493,2.8816366767330384,-0.5976385686172565,1.685129400418178,-0.620512712699657,-0.5770115382370031,0.1256989504217636,-0.6548935489107174,-4.5771600435042,1.1219587167332865,-1.217164997807699,1.0539802333495762],"standardError":1.013131809607629,"tStat":0.9989641876613944},{"label":"X Variable 3","coefficients":[-0.3044152603706145,-1.2252846828965493,-0.3240747035271223,-1.201755450755888,7.784769800496594,-7.238603295620152,-0.1628205914255485,-2.8063584900011787,5.3198245476519075,-0.013488640364981874,-1.2703433733499323,-4.46533488013011,3.388823836053913,2.0868200646688253,2.7282516343874903,1.7385169496550552,-1.5000929390407078,-3.624161016920576,-0.7363570098059888,0.31549029310333765,-3.581766500256753,-2.023307318840488,4.575749744848332,5.852958366605593,0.8660221427934047,-8.774783236088417,-2.6566436181269415,-0.9349700756961936,-2.4149834897617506,0.5807321476544658,-2.497515369729701,0.25846185600693106,0.6770368097220842,-1.4745262595267352,0.4663644627568687,-2.0049573866861468,2.4090762605369007,4.314269648085326,0.10011930326920526],"standardError":1.313921595545921,"tStat":-0.23168449426705182},{"label":"X Variable 4","coefficients":[-1.7027969684941269,1.6758084054326137,1.5409195669891549,2.4546194377650696,-5.21378891400011,-6.428155757386131,0.9231134084128367,-7.501288115232114,-2.907353013333841,-2.254340182588211,-3.077782162722457,-2.994047407825509,6.686993383813663,-0.9478076725805389,-5.535258725232451,-4.716172506199335,-3.2478449883935903,6.760489982029676,3.442884333809144,0.9881207420838307,-0.167456084795504,1.5447736674446189,-6.362435204538068,-3.376746256770715,-4.742769463718021,-5.863723047622095,-6.223176634009094,-8.033462910816851,-0.7176074853979463,-6.68220186053814,-8.277032216281512,0.4870662902294005,0.6240601826371464,0.06876808246814958,1.1701888456313208,-1.11071653566257,6.030725905515185,-2.856586088004435,2.640868769341195],"standardError":1.2543522084536043,"tStat":-1.3575110379830049},{"label":"X Variable 5","coefficients":[1.1491822720871432,4.792899945250643,3.7226689615979107,5.042945266038978,-1.5955403905807315,-2.704962453629006,5.672268639743177,3.8891053819577417,-2.6116797590786396,0.7765308463532127,0.3900695373752561,1.7763061205680069,2.445780028193903,-1.0622745812358505,0.2823329778613275,-2.8290392484371547,2.7411745689726104,-0.24315520842374894,3.4734178349285383,3.2464789245281223,1.2746120998172976,0.09017873456209241,0.3221129745170983,-2.419097111847384,-1.8193863918688296,7.353635319395458,-1.0395925843662872,-3.1358504052184264,1.0071779444518523,1.6941636422332347,2.85564789520598,-0.6537633252873549,0.08794936472624548,2.1327814193843144,-2.2716131163401,4.150274329649812,-1.202083132691723,-1.7661566260461714,-1.0036064387181873],"standardError":1.5411763751174155,"tStat":0.7456526654839178},{"label":"Intercept","coefficients":[4.4274775837373195,4.472902165813635,2.209733620666502,4.712613173112939,3.9231822826582214,3.2656269050771916,3.595120227873493,6.711261469805762,4.4245589437363275,1.223724797606278,2.46619358215271,1.738437995806738,1.5610414124740843,3.89588241690132,5.110112675371933,2.0316772672840817,3.9398203722366087,3.99010990027439,3.666033069842216,1.903781377810272,1.4120308680390747,1.4160212511790813,5.508471114762866,3.8400198766159392,3.4625421990473013,3.893344568333985,4.379102823592343,2.1911284703381995,0.7069583051181878,4.094827618792897,6.0265671846401805,0.6021081289996876,6.112039362994493,2.0676548176517766,0.5311972191218488,1.686695187744283,2.347188194800875,4.616229335125121,0.29238089802167],"standardError":0.21383831681017185,"tStat":20.704790655772285}]}}