{
    "name":"multivariateLinearRegression",
    "weights":[
        [
            5.173401481152007,
            4.277523669540321,
            2.5680435135347097,
            0.3800361258306774,4.663443298480734,-2.6959145916663707,
            6.894197377942262,4.691290548276029,-0.3354713604207461,
            3.157389718149458,0.10191056736371779,
            1.6320440485953303,1.0510358290468946,-3.052941991184241,2.4136809716846592,
            -2.8726448542260288,-0.037850857031400634,2.193695797737509
        ],[
            -0.9901304945537575,0.20905460611464854,-2.3007392322594304,-3.4193925270097285,
            -0.795018564068835,0.44632342855587903,2.41382307465446,-0.5979122872229059,
            0.5863409750630907,-2.190278854659502,-0.1477274084570443,0.2086223667909186,
            3.383666853212114,1.854950096243868,2.0684136065201515,0.24681132398207872,
            -2.0385626626253206,1.9064104225003815
        ],[
            -3.452428557718416,-3.3766583390657483,-5.502715349757656,-1.8417764178781382,
            -2.6720249760162877,3.040636949345073,-4.690383115495657,-2.070983946644393,
            7.489883807321391,-3.6387609188884626,-4.661283380321735,-0.38287758781228787,
            6.927753393549624,4.059540231774248,-1.3518329559524798,4.345338115166729,
            -0.9289163449414346,5.132798266075561
        ],[
            -1.093249652180098,-1.7967605761069745,-3.96036074349679,-3.3794247991198647,
            -0.6524146999163172,6.452807613738826,1.0194698370290012,-1.1443189167998418,
            5.631196030548239,-4.305240197801111,-1.8165660338220762,-1.5076515306587197,
            3.5264051906054483,-0.039611303669098596,1.756948378686345,2.0757538693441546,
            -0.5742332485309198,2.832604952771499
        ],[
            -0.7555286501521215,0.2742713087771982,-2.144061861558818,-0.19634272805029074,
            1.9399928314561894,3.6204264523908036,-1.07410866381562,-0.8044416929104861,
            4.575380597477793,-1.3275006687359898,-4.678160318303075,0.7310806980790332,
            6.4485851343549,0.16255269010789597,-2.8181063260832975,0.1582100430959521,
            0.8442851950465298,7.825643448514818
        ],[
            4.097584563559887,6.9439189535442125,5.485366193642139,3.950756098730942,
            6.465078162917588,2.2004799543842974,4.7621539390421335,2.726395819593594,
            2.506634861419646,5.897108433468178,3.0380847035751786,6.8122552509099386,
            4.426415525287918,6.132091071412958,5.984440423022414,2.9376531909786108,
            0.6672112792133962,3.9028982697492465
        ]
    ],
    "inputs":5,
    "outputs":18,
    "intercept":true,
    "summary":{
        "regressionStatistics":{"standardError":2.0007201910564336,"observations":18},
        "variables":[{
            "label":"X Variable 1",
            "coefficients":[
                5.173401481152007,
                4.277523669540321,
                2.5680435135347097,
                0.3800361258306774,
                4.663443298480734,
                -2.6959145916663707,
                6.894197377942262,4.691290548276029,-0.3354713604207461,
                3.157389718149458,0.10191056736371779,1.6320440485953303,1.0510358290468946,
                -3.052941991184241,2.4136809716846592,-2.8726448542260288,-0.037850857031400634,
                2.193695797737509
            ],
            "standardError":0.9764949672187787,"tStat":5.297929487426567
            },{
                "label":"X Variable 2",
                "coefficients":[
                    -0.9901304945537575,0.20905460611464854,-2.3007392322594304,
                    -3.4193925270097285,-0.795018564068835,0.44632342855587903,
                    2.41382307465446,-0.5979122872229059,0.5863409750630907,
                    -2.190278854659502,-0.1477274084570443,0.2086223667909186,
                    3.383666853212114,1.854950096243868,2.0684136065201515,
                    0.24681132398207872,-2.0385626626253206,1.9064104225003815
                ],
                "standardError":1.077971659477796,"tStat":-0.9185125470120508
            },{
                "label":"X Variable 3",
                "coefficients":[
                    -3.452428557718416,-3.3766583390657483,-5.502715349757656,
                    -1.8417764178781382,-2.6720249760162877,3.040636949345073,
                    -4.690383115495657,-2.070983946644393,7.489883807321391,
                    -3.6387609188884626,-4.661283380321735,-0.38287758781228787,
                    6.927753393549624,4.059540231774248,-1.3518329559524798,4.345338115166729,
                    -0.9289163449414346,5.132798266075561
                ],
                "standardError":1.1026086657637548,"tStat":-3.1311458588319625
            },{
                "label":"X Variable 4",
                "coefficients":[
                    -1.093249652180098,-1.7967605761069745,-3.96036074349679,-3.3794247991198647,
                    -0.6524146999163172,6.452807613738826,1.0194698370290012,-1.1443189167998418,
                    5.631196030548239,-4.305240197801111,-1.8165660338220762,-1.5076515306587197,
                    3.5264051906054483,-0.039611303669098596,1.756948378686345,2.0757538693441546,
                    -0.5742332485309198,2.832604952771499
                ],
                "standardError":1.2498223000273996,"tStat":-0.8747240724990513
            },{
                "label":"X Variable 5",
                "coefficients":[
                    -0.7555286501521215,0.2742713087771982,-2.144061861558818,-0.19634272805029074
                    ,1.9399928314561894,3.6204264523908036,-1.07410866381562,-0.8044416929104861
                    ,4.575380597477793,-1.3275006687359898,-4.678160318303075,0.7310806980790332
                    ,6.4485851343549,0.16255269010789597,-2.8181063260832975,0.1582100430959521
                    ,0.8442851950465298,7.825643448514818
                ],
                "standardError":1.4592105623619547,"tStat":-0.5177653380806011
            },{
                "label":"Intercept",
                "coefficients":[
                    4.097584563559887,6.9439189535442125,5.485366193642139,3.950756098730942,
                    6.465078162917588,2.2004799543842974,4.7621539390421335,2.726395819593594,
                    2.506634861419646,5.897108433468178,3.0380847035751786,6.8122552509099386,
                    4.426415525287918,6.132091071412958,5.984440423022414,2.9376531909786108,
                    0.6672112792133962,3.9028982697492465
                ],
                "standardError":0.2079059744103651,
                "tStat":19.708835088462003
            }
        ]
    }
}
