{"name":"multivariateLinearRegression","weights":[[2.764628562633026,3.587182949177967,4.3524359318082855,3.0653259572298386,3.7134735213936803,4.230386854777633,5.246372733448053,4.263783003359894,4.806101272631403,1.6843294906982087,-0.5634420075860431,-2.6166092436972557,-2.0104655921013785,7.036647943594911,4.007618028593241,4.351919847503387,7.450430056823407,-0.3479199456734614,2.3474078716016225,4.758107523180868,1.1236791147136431,4.954401162729036,7.019665196973536,4.289287290907872,0.5469304976842926,4.329095414712453,5.319111873245817,5.388057470581795,6.760227416366181,-1.3466484155366407,3.5357065544683937,6.499703556524821,3.737175799247161,6.245943978602393,5.425267537136605,-1.1369292389869199,3.3952172841677895,2.930704060279984,-0.6652980509239041,-0.041702653250760946,5.5900338344832,2.2549751559579345,6.254388531601331,8.62748030258187,8.575055365069472,3.1971127701584425,1.7076925121465378,4.193164054274661,5.185151042815945,-0.14042105780628011,7.550371753666983,1.3993443087420316,-1.7871109047691935,3.9717782451461847,2.11800602517157,3.752500127380797,4.420362518509194,4.2220005665440175,1.0699991282765557,4.090167394814751,6.304037737493163,7.283142176068736,0.8992024500837095,5.673437755980093,2.300611965408512,2.413937916882177,-2.196696029104438,-3.554523834719512,4.182063463170628,0.3966944980636522,4.393968213339251,-0.943327792107512,3.1198218685064147,3.214423131261782,2.1371125533008497,7.127421548740009,5.545145175740261,10.549726948642679,4.344847395480688,0.820755831905096,3.6467972014644894,3.375514012163265,-0.0598278558091323,1.5070142047058441,-1.6823703586002035,-2.044408578432085,1.0952917730408083,1.0353060420680638,3.5688747351596435,7.277738058521269,3.0639360710437957,-6.041101419509598,-1.8378066402280009,-0.020746888645435835,3.750473364885458,6.759858283699953,6.251068044068097,5.478742416381854,-3.496084003419872,1.7559699960374537,-1.266733310627687,5.353859456217908,3.4854436916477214,1.4735828250543022,4.397700229106532,-0.8253696613081623,3.3663276421618864,-0.630979077105664,3.6461564554032577,3.4678289788130536,0.07740968313832397,0.17111603132139463,1.304169767456198,5.364539019706744,0.05886033449231842,1.4337069016135722,0.9552459590786881,7.1405789392927135,1.0456777111693212,-1.005185173298334],[-1.4050941250328686,-1.5811031465991245,-3.3629020699427925,-1.312824156195818,-0.645093956876857,-2.0524054675608046,-0.0027598198757867176,-0.45785459369136894,-0.01494851969745975,-3.0766252373109486,-1.2170816204356272,-0.16307573069310694,-4.646204605711245,-1.4136087096834937,-1.1527606329435298,-0.5318439745766234,0.05933340854319946,-0.24336329210509566,-1.5934905430621598,-2.2574062616182724,-0.42107878925258563,-0.7648959520393399,-0.5438348912843086,-0.18366007493086656,1.9205981652457118,-2.132398880807537,-1.393261032086174,-3.9617484206442426,-0.9864399403050482,1.6446143817023766,1.228952904491529,1.54480147466067,0.8680624486156994,-0.6846328754812814,1.3437395164103032,-1.7506504682996484,-0.6281310082535363,-1.2431147576149968,-5.205305568076865,-0.3976693585950243,-2.3914193529093355,-1.7862188825637888,2.4698831104566366,5.32100150717131,2.025281214349494,-3.837921038010546,-3.137222664347056,-0.4878909160136029,-1.673649169632844,-2.666863141393828,-4.532429460161084,-3.0296712479449317,-1.8429953252376539,-1.8388728570346953,-2.744192331042762,-2.726855285588265,2.786743856319535,-0.8753786765140219,-2.281045163358149,0.35877733644789345,-1.8801946464236192,-1.5439094835047769,-1.1217858356737953,-1.1364329640168314,-2.114485646078308,-1.933290324508426,-1.6243203009247953,-3.718686848272706,-2.74844403580815,-1.3611604233071193,-1.59413110894617,-2.763230824110766,4.075681435860901,-1.0916916599185844,-1.3425688440118884,1.8513981229493537,-0.519029634346535,-2.375193332937561,1.5655825163712214,-1.707243974879188,1.9750248326988493,-1.7979671348742579,-2.713422238527197,0.4469088136701701,-0.9071111002012571,-2.6343919813393253,-0.07379049792159081,0.12912751558844132,3.451187494598569,2.602162714528748,-1.7627910535121871,-2.585606329769165,-1.2765527944508124,0.13331530572715933,-2.1273698314125027,-4.7058989360416135,4.123674605792701,2.7853448294108514,2.618637772780403,0.13193384368354488,2.490813265087023,-2.585459994963482,-0.1627885983715993,-3.022796747015205,1.8378658915400452,-3.6220909996944877,4.387578358373126,0.7902984945523389,-0.18999790892829904,-3.859021312786151,-2.8001664950981944,-0.9861107240655198,-1.6552305796548308,-0.5071463784950194,-1.6692455186729576,1.7884418063641296,0.045332216296385563,1.4099018242153232,2.220918615593412,2.0536232738217888],[1.0508029080397328,0.11562174802920389,-0.7811913335769223,-0.4748953072085609,-2.7297040481767176,-4.720010745272309,-2.5153265624775223,-3.104641283506898,-1.1683555353848423,1.9489099797131928,0.14887351613968347,2.1510629872427875,0.4892932309393947,-0.7121684061106661,-2.157735031590626,-3.4012901581303017,-3.869967270779764,6.431753471947731,-0.7301303114358939,-1.9400020466382504,0.7429985001053288,-4.192290015062331,-2.0339482880676547,-1.7933090751238057,-1.8296401602532768,-1.7716608811269676,-3.4817213260228534,0.16691072378059868,-3.8662875282854845,-3.8595535822724645,-4.019063889689751,-2.6703082937419156,-3.3914704156187385,-0.29554638576581294,-3.479247771846503,0.1425502566714596,-1.26611944229374,-3.0634143324110084,-1.1915098858416986,-0.6899940855679416,-0.5443146011669269,-0.954875220165956,-2.6026461983166205,-2.6162950752717022,-2.1057477373375333,-2.5288019220000564,2.3648780190637346,-4.034452875163112,-2.4644659877373423,0.04995816632530259,-0.6294921506164366,-0.029956132036022876,1.9115714422069607,0.372247574385673,3.255968878566661,0.07864696679096461,-4.656566080430951,-0.05547144825458261,-1.3499908615622465,-2.7089972097378716,-3.9926832943344657,-0.6798189833134543,-0.39787026940505643,-0.5288311263665584,9.346959985980607,-1.3051281806769524,-2.788182272726795,-2.3274212199827637,-1.0570688966038198,1.8416618631142159,0.9939141075564488,1.9995373793784552,-3.8328460777198687,-2.496968554160979,0.2509111004186291,-5.031079399740462,-0.7409589635002742,-0.4467484608268206,-3.9930865566572273,1.4969655891308125,-0.7008434094449196,-0.13168597101457458,-0.22221729651573163,-2.702311807249096,1.4369090932633282,2.8917928833538253,-1.5102197482132675,-1.8227051608342506,-4.047518354816381,-7.696000580070311,-1.6708000938237833,0.36544148495315776,2.6486757122081404,-0.42695385824306686,-0.9630317105430146,-1.1943000593191684,-3.089412919913584,-1.9487866867702648,5.483771103551145,-2.5220388166599523,5.596047803415811,-2.749953882858306,-6.103960403292629,0.9909596239356686,-6.78790315638705,1.2440675159558552,-2.1969630743901196,0.32129421368560074,0.9047457060485984,1.012323404611113,1.8792526719207552,0.3769364999327127,0.7916065201607112,-0.3356356334120587,0.34236581788218423,-0.30356656958212724,-2.1915654739382138,-0.726634109892971,-4.9073060007698945,-2.2946439631955178],[-1.1161945266139919,-1.6303439490768643,0.6383358486086467,1.1962715143398022,0.3062731978470058,-0.5653003727054865,0.511749038820732,-4.7379544669809714,-0.32478971804178913,-3.247654680693957,-0.1235270871064208,4.419784843863414,0.06435882834497025,-0.6507362715836158,-3.9046609133884096,-4.572746460641056,0.5188136827660661,4.525857118758285,1.6126744498621473,-0.5964146684381271,0.48310441057751785,-0.11445436994014124,0.8975789972971571,-0.7621535491162514,0.44242430827586043,-0.0002899556793873881,0.07869748441954671,-1.4640158230102989,-5.420667282012018,-1.3071456526358132,0.20081191803831355,-0.8588936978728305,-1.7359768126779629,0.7299134154916403,-0.7171349534280582,0.7116281624098635,-5.068086213770384,3.3192314201956967,-2.508481044663337,0.4320767527856476,-2.182634389497613,-1.4421803164009588,-2.5279808466282083,1.3815004400278195,-1.2199286783019772,-0.9139413084134205,0.6085622843964414,-0.009294075186985551,0.7054130225940117,2.2643027919855228,-0.11812394532893689,-1.3364452796474269,1.978006620734857,-2.4516413239208448,-5.4761749250709215,-0.9499118531193803,-3.8042092001505514,-0.9969204084875305,-1.215406074680292,-2.985998691890184,0.8686336745521995,1.0008194995104427,1.1161351045266146,0.7590706139441886,-4.549686409367308,0.5295276444919662,4.463551447493961,1.5859709247193345,-2.5407042817192695,0.302714528584897,-1.6261554344238816,-1.0861909634474394,-3.039185896398316,-3.182995047087929,-1.5440760906797046,-10.99306246490253,-3.176077079763219,-5.1387865679190625,-0.9029047509316727,-1.1449686083586055,-0.5945641289920354,-0.9561698975737537,-0.9429032596724344,0.06203028662838217,-3.780930874885668,4.749185915105199,-2.6701754248215988,-2.3179319367920708,-0.5440645522191301,-6.704115204126219,0.7631703048538152,1.6654217569380885,-2.7170248281581353,0.9167437911350904,0.7923685462323607,-0.29215711408866096,1.7014150171294011,1.3929948899083024,4.377703472374337,1.6929501203479673,6.488386813868083,-1.9865740614954708,0.8034055825525187,-1.9172084545261743,-9.253262037173473,0.7772761128602776,-0.24149718884787394,3.0393467320449203,0.35639133325625083,-0.8897909718839251,-1.7486884240244231,0.3855434244212457,-1.1373142860078136,-0.16217011297154016,6.221046991204377,0.20181854582366154,2.0836425412786492,5.549724200911081,-1.09969138376526,3.506639830427854],[5.156487690407136,3.6800759406581265,9.072765369285497,3.474414028382946,4.292227927595089,5.02103332263345,4.210004572272698,0.7972981082200298,6.856106379578233,4.394994215434231,3.0207628899180885,2.71692375651782,2.23751495771993,7.213357950472293,2.0920885555936097,1.6677449353652287,3.6878073933141247,4.774091137993539,4.241064097954433,3.053609630982614,1.2667047429388525,1.3337871598299773,3.6092324244760423,3.863541979727818,-1.053310921507253,3.2911636420433457,4.782842814481921,6.361205789477349,1.9383022431379586,0.005748953096783582,1.4927496218762384,4.454374571394006,2.189610817528523,4.866442985812517,-2.073994515349924,2.0887105698603685,0.6837976589665167,4.857969683063917,2.3544636384889195,0.20286959811154115,4.046258280942592,3.2189601460547212,5.466016033359051,6.7036682734570405,2.8061658079736995,2.7262945941126517,0.3007955594007794,3.769394815159089,3.656963989804123,2.2303410830515866,6.474929076131811,3.526064969932226,3.818757491326081,3.0980236688253315,-1.8981983394528297,2.3851751935324823,1.532517194405615,5.915185372394887,0.13916727036987742,4.977369882461938,2.915123992672259,4.4379675850497025,-0.7543336569048423,2.062431571889596,-2.7066895289231248,2.9073878741686583,3.069159092590236,2.136990360457609,2.7415589294622764,0.4603014710188925,2.862360162107777,0.5204453819879686,0.0036034480425204407,2.639713143085415,0.4426608064927708,-2.172237147926322,4.685928676347073,0.9893550636489499,2.934341476802543,-1.861280956002301,1.22545556466285,3.5175756249786874,1.5635764919943884,1.0748123576734165,3.148346054376778,3.823549149985709,2.377855269285683,2.60561686283819,4.635481798245999,7.655596036519578,1.7338325198614062,5.037587014355161,-1.3817959051280384,-1.9795151823196593,1.4785739530484934,0.6827987460916518,3.5666152096424133,5.138892393072265,-0.053741473747907054,0.7336882244840006,1.919539490810736,2.596602913663505,2.5037843745818518,3.393951946352192,0.48042320140996053,3.2042192566742385,1.0213347998279398,2.617837250898346,3.6581985915614195,4.069890041231769,1.597607129790988,1.1705502776713383,1.5749091304028915,5.530054993064684,4.7814624136170805,3.8935692550347,3.2566696121087695,-0.24652449432510304,1.073057132574973,-4.00244671858715],[5.234198546821074,7.025645855328876,5.115742383192332,5.806253375143956,7.135989914769129,4.663149512354278,5.649366888507064,3.02994912679326,5.7041280251897435,4.661114777809345,3.028753092549229,3.926852664448109,2.4741306229242963,4.6790727137944055,2.3411251432369293,2.835553800799531,4.958671314185575,4.9320205767177585,5.135162581052776,6.557636176118066,6.508197985666487,5.642346438077764,4.700133447979397,7.561689830757106,6.585656969699757,6.076379027300581,5.158579901976916,6.956017251365355,5.292976247621723,1.948666141329042,4.689398673984294,5.732895892325721,6.346550949375361,5.365178197958524,3.4644396026570106,1.0535765918415465,6.474682632163686,3.8197175320160466,3.4785853404847735,6.18551866678656,5.609816158648001,6.3372535567464245,3.1874694975300053,3.0264558127639454,3.872437660417652,5.414305126225463,4.54253223130717,5.988823635610707,5.6206929404287465,2.624803756506233,4.77424446826813,3.849668524204093,2.3066154788352877,5.27003952192767,2.8213132537427374,4.701396079535572,2.14569317015029,2.743673470121705,4.573508763739482,6.708095397375007,4.674915227775328,3.9591291449555044,1.4376839821285314,4.554010908081062,2.919458936450957,6.000647032703339,4.797853555458326,1.6497254244465651,5.656688808803728,2.7552166208649105,5.152525588534708,1.9431419767743443,6.324906675148551,6.467530253709182,1.0601502567305892,5.677975754206529,5.208280526254762,5.72809326852707,3.7600252108763477,0.8742851902507836,3.7654084920534885,4.884642547131972,5.813269290827209,4.155773502446775,3.764889920058619,3.0534115717880135,4.554754603861454,1.0999666659095644,0.9284759510825692,4.547105589889937,5.2747652562405385,2.795124159938008,3.440301657989013,0.24252075855033406,7.229597163158665,6.124552104718119,3.2128388587347416,5.696277063406026,2.781501642001962,5.516253717973495,2.9897850397776775,5.3521540138507975,4.404486606812154,3.3217771104592164,4.067523237828067,4.621052278875049,3.292565292796296,2.670265753526071,6.671677848307424,6.064245267668469,3.6555935780864077,1.6777979938710208,2.435584335069841,5.579274411282669,4.100484383276342,5.6522804057139036,6.314335465753772,2.7368906601342573,4.024645052011162,2.9833497372492204]],"inputs":5,"outputs":120,"intercept":true,"summary":{"regressionStatistics":{"standardError":1.5564452655794874,"observations":120},"variables":[{"label":"X Variable 1","coefficients":[2.764628562633026,3.587182949177967,4.3524359318082855,3.0653259572298386,3.7134735213936803,4.230386854777633,5.246372733448053,4.263783003359894,4.806101272631403,1.6843294906982087,-0.5634420075860431,-2.6166092436972557,-2.0104655921013785,7.036647943594911,4.007618028593241,4.351919847503387,7.450430056823407,-0.3479199456734614,2.3474078716016225,4.758107523180868,1.1236791147136431,4.954401162729036,7.019665196973536,4.289287290907872,0.5469304976842926,4.329095414712453,5.319111873245817,5.388057470581795,6.760227416366181,-1.3466484155366407,3.5357065544683937,6.499703556524821,3.737175799247161,6.245943978602393,5.425267537136605,-1.1369292389869199,3.3952172841677895,2.930704060279984,-0.6652980509239041,-0.041702653250760946,5.5900338344832,2.2549751559579345,6.254388531601331,8.62748030258187,8.575055365069472,3.1971127701584425,1.7076925121465378,4.193164054274661,5.185151042815945,-0.14042105780628011,7.550371753666983,1.3993443087420316,-1.7871109047691935,3.9717782451461847,2.11800602517157,3.752500127380797,4.420362518509194,4.2220005665440175,1.0699991282765557,4.090167394814751,6.304037737493163,7.283142176068736,0.8992024500837095,5.673437755980093,2.300611965408512,2.413937916882177,-2.196696029104438,-3.554523834719512,4.182063463170628,0.3966944980636522,4.393968213339251,-0.943327792107512,3.1198218685064147,3.214423131261782,2.1371125533008497,7.127421548740009,5.545145175740261,10.549726948642679,4.344847395480688,0.820755831905096,3.6467972014644894,3.375514012163265,-0.0598278558091323,1.5070142047058441,-1.6823703586002035,-2.044408578432085,1.0952917730408083,1.0353060420680638,3.5688747351596435,7.277738058521269,3.0639360710437957,-6.041101419509598,-1.8378066402280009,-0.020746888645435835,3.750473364885458,6.759858283699953,6.251068044068097,5.478742416381854,-3.496084003419872,1.7559699960374537,-1.266733310627687,5.353859456217908,3.4854436916477214,1.4735828250543022,4.397700229106532,-0.8253696613081623,3.3663276421618864,-0.630979077105664,3.6461564554032577,3.4678289788130536,0.07740968313832397,0.17111603132139463,1.304169767456198,5.364539019706744,0.05886033449231842,1.4337069016135722,0.9552459590786881,7.1405789392927135,1.0456777111693212,-1.005185173298334],"standardError":0.8379448456105786,"tStat":3.2992965791424447},{"label":"X Variable 2","coefficients":[-1.4050941250328686,-1.5811031465991245,-3.3629020699427925,-1.312824156195818,-0.645093956876857,-2.0524054675608046,-0.0027598198757867176,-0.45785459369136894,-0.01494851969745975,-3.0766252373109486,-1.2170816204356272,-0.16307573069310694,-4.646204605711245,-1.4136087096834937,-1.1527606329435298,-0.5318439745766234,0.05933340854319946,-0.24336329210509566,-1.5934905430621598,-2.2574062616182724,-0.42107878925258563,-0.7648959520393399,-0.5438348912843086,-0.18366007493086656,1.9205981652457118,-2.132398880807537,-1.393261032086174,-3.9617484206442426,-0.9864399403050482,1.6446143817023766,1.228952904491529,1.54480147466067,0.8680624486156994,-0.6846328754812814,1.3437395164103032,-1.7506504682996484,-0.6281310082535363,-1.2431147576149968,-5.205305568076865,-0.3976693585950243,-2.3914193529093355,-1.7862188825637888,2.4698831104566366,5.32100150717131,2.025281214349494,-3.837921038010546,-3.137222664347056,-0.4878909160136029,-1.673649169632844,-2.666863141393828,-4.532429460161084,-3.0296712479449317,-1.8429953252376539,-1.8388728570346953,-2.744192331042762,-2.726855285588265,2.786743856319535,-0.8753786765140219,-2.281045163358149,0.35877733644789345,-1.8801946464236192,-1.5439094835047769,-1.1217858356737953,-1.1364329640168314,-2.114485646078308,-1.933290324508426,-1.6243203009247953,-3.718686848272706,-2.74844403580815,-1.3611604233071193,-1.59413110894617,-2.763230824110766,4.075681435860901,-1.0916916599185844,-1.3425688440118884,1.8513981229493537,-0.519029634346535,-2.375193332937561,1.5655825163712214,-1.707243974879188,1.9750248326988493,-1.7979671348742579,-2.713422238527197,0.4469088136701701,-0.9071111002012571,-2.6343919813393253,-0.07379049792159081,0.12912751558844132,3.451187494598569,2.602162714528748,-1.7627910535121871,-2.585606329769165,-1.2765527944508124,0.13331530572715933,-2.1273698314125027,-4.7058989360416135,4.123674605792701,2.7853448294108514,2.618637772780403,0.13193384368354488,2.490813265087023,-2.585459994963482,-0.1627885983715993,-3.022796747015205,1.8378658915400452,-3.6220909996944877,4.387578358373126,0.7902984945523389,-0.18999790892829904,-3.859021312786151,-2.8001664950981944,-0.9861107240655198,-1.6552305796548308,-0.5071463784950194,-1.6692455186729576,1.7884418063641296,0.045332216296385563,1.4099018242153232,2.220918615593412,2.0536232738217888],"standardError":0.9955363444624667,"tStat":-1.411394102132494},{"label":"X Variable 3","coefficients":[1.0508029080397328,0.11562174802920389,-0.7811913335769223,-0.4748953072085609,-2.7297040481767176,-4.720010745272309,-2.5153265624775223,-3.104641283506898,-1.1683555353848423,1.9489099797131928,0.14887351613968347,2.1510629872427875,0.4892932309393947,-0.7121684061106661,-2.157735031590626,-3.4012901581303017,-3.869967270779764,6.431753471947731,-0.7301303114358939,-1.9400020466382504,0.7429985001053288,-4.192290015062331,-2.0339482880676547,-1.7933090751238057,-1.8296401602532768,-1.7716608811269676,-3.4817213260228534,0.16691072378059868,-3.8662875282854845,-3.8595535822724645,-4.019063889689751,-2.6703082937419156,-3.3914704156187385,-0.29554638576581294,-3.479247771846503,0.1425502566714596,-1.26611944229374,-3.0634143324110084,-1.1915098858416986,-0.6899940855679416,-0.5443146011669269,-0.954875220165956,-2.6026461983166205,-2.6162950752717022,-2.1057477373375333,-2.5288019220000564,2.3648780190637346,-4.034452875163112,-2.4644659877373423,0.04995816632530259,-0.6294921506164366,-0.029956132036022876,1.9115714422069607,0.372247574385673,3.255968878566661,0.07864696679096461,-4.656566080430951,-0.05547144825458261,-1.3499908615622465,-2.7089972097378716,-3.9926832943344657,-0.6798189833134543,-0.39787026940505643,-0.5288311263665584,9.346959985980607,-1.3051281806769524,-2.788182272726795,-2.3274212199827637,-1.0570688966038198,1.8416618631142159,0.9939141075564488,1.9995373793784552,-3.8328460777198687,-2.496968554160979,0.2509111004186291,-5.031079399740462,-0.7409589635002742,-0.4467484608268206,-3.9930865566572273,1.4969655891308125,-0.7008434094449196,-0.13168597101457458,-0.22221729651573163,-2.702311807249096,1.4369090932633282,2.8917928833538253,-1.5102197482132675,-1.8227051608342506,-4.047518354816381,-7.696000580070311,-1.6708000938237833,0.36544148495315776,2.6486757122081404,-0.42695385824306686,-0.9630317105430146,-1.1943000593191684,-3.089412919913584,-1.9487866867702648,5.483771103551145,-2.5220388166599523,5.596047803415811,-2.749953882858306,-6.103960403292629,0.9909596239356686,-6.78790315638705,1.2440675159558552,-2.1969630743901196,0.32129421368560074,0.9047457060485984,1.012323404611113,1.8792526719207552,0.3769364999327127,0.7916065201607112,-0.3356356334120587,0.34236581788218423,-0.30356656958212724,-2.1915654739382138,-0.726634109892971,-4.9073060007698945,-2.2946439631955178],"standardError":1.1649655936444925,"tStat":0.9020033842822672},{"label":"X Variable 4","coefficients":[-1.1161945266139919,-1.6303439490768643,0.6383358486086467,1.1962715143398022,0.3062731978470058,-0.5653003727054865,0.511749038820732,-4.7379544669809714,-0.32478971804178913,-3.247654680693957,-0.1235270871064208,4.419784843863414,0.06435882834497025,-0.6507362715836158,-3.9046609133884096,-4.572746460641056,0.5188136827660661,4.525857118758285,1.6126744498621473,-0.5964146684381271,0.48310441057751785,-0.11445436994014124,0.8975789972971571,-0.7621535491162514,0.44242430827586043,-0.0002899556793873881,0.07869748441954671,-1.4640158230102989,-5.420667282012018,-1.3071456526358132,0.20081191803831355,-0.8588936978728305,-1.7359768126779629,0.7299134154916403,-0.7171349534280582,0.7116281624098635,-5.068086213770384,3.3192314201956967,-2.508481044663337,0.4320767527856476,-2.182634389497613,-1.4421803164009588,-2.5279808466282083,1.3815004400278195,-1.2199286783019772,-0.9139413084134205,0.6085622843964414,-0.009294075186985551,0.7054130225940117,2.2643027919855228,-0.11812394532893689,-1.3364452796474269,1.978006620734857,-2.4516413239208448,-5.4761749250709215,-0.9499118531193803,-3.8042092001505514,-0.9969204084875305,-1.215406074680292,-2.985998691890184,0.8686336745521995,1.0008194995104427,1.1161351045266146,0.7590706139441886,-4.549686409367308,0.5295276444919662,4.463551447493961,1.5859709247193345,-2.5407042817192695,0.302714528584897,-1.6261554344238816,-1.0861909634474394,-3.039185896398316,-3.182995047087929,-1.5440760906797046,-10.99306246490253,-3.176077079763219,-5.1387865679190625,-0.9029047509316727,-1.1449686083586055,-0.5945641289920354,-0.9561698975737537,-0.9429032596724344,0.06203028662838217,-3.780930874885668,4.749185915105199,-2.6701754248215988,-2.3179319367920708,-0.5440645522191301,-6.704115204126219,0.7631703048538152,1.6654217569380885,-2.7170248281581353,0.9167437911350904,0.7923685462323607,-0.29215711408866096,1.7014150171294011,1.3929948899083024,4.377703472374337,1.6929501203479673,6.488386813868083,-1.9865740614954708,0.8034055825525187,-1.9172084545261743,-9.253262037173473,0.7772761128602776,-0.24149718884787394,3.0393467320449203,0.35639133325625083,-0.8897909718839251,-1.7486884240244231,0.3855434244212457,-1.1373142860078136,-0.16217011297154016,6.221046991204377,0.20181854582366154,2.0836425412786492,5.549724200911081,-1.09969138376526,3.506639830427854],"standardError":1.129572174535155,"tStat":-0.9881568896412765},{"label":"X Variable 5","coefficients":[5.156487690407136,3.6800759406581265,9.072765369285497,3.474414028382946,4.292227927595089,5.02103332263345,4.210004572272698,0.7972981082200298,6.856106379578233,4.394994215434231,3.0207628899180885,2.71692375651782,2.23751495771993,7.213357950472293,2.0920885555936097,1.6677449353652287,3.6878073933141247,4.774091137993539,4.241064097954433,3.053609630982614,1.2667047429388525,1.3337871598299773,3.6092324244760423,3.863541979727818,-1.053310921507253,3.2911636420433457,4.782842814481921,6.361205789477349,1.9383022431379586,0.005748953096783582,1.4927496218762384,4.454374571394006,2.189610817528523,4.866442985812517,-2.073994515349924,2.0887105698603685,0.6837976589665167,4.857969683063917,2.3544636384889195,0.20286959811154115,4.046258280942592,3.2189601460547212,5.466016033359051,6.7036682734570405,2.8061658079736995,2.7262945941126517,0.3007955594007794,3.769394815159089,3.656963989804123,2.2303410830515866,6.474929076131811,3.526064969932226,3.818757491326081,3.0980236688253315,-1.8981983394528297,2.3851751935324823,1.532517194405615,5.915185372394887,0.13916727036987742,4.977369882461938,2.915123992672259,4.4379675850497025,-0.7543336569048423,2.062431571889596,-2.7066895289231248,2.9073878741686583,3.069159092590236,2.136990360457609,2.7415589294622764,0.4603014710188925,2.862360162107777,0.5204453819879686,0.0036034480425204407,2.639713143085415,0.4426608064927708,-2.172237147926322,4.685928676347073,0.9893550636489499,2.934341476802543,-1.861280956002301,1.22545556466285,3.5175756249786874,1.5635764919943884,1.0748123576734165,3.148346054376778,3.823549149985709,2.377855269285683,2.60561686283819,4.635481798245999,7.655596036519578,1.7338325198614062,5.037587014355161,-1.3817959051280384,-1.9795151823196593,1.4785739530484934,0.6827987460916518,3.5666152096424133,5.138892393072265,-0.053741473747907054,0.7336882244840006,1.919539490810736,2.596602913663505,2.5037843745818518,3.393951946352192,0.48042320140996053,3.2042192566742385,1.0213347998279398,2.617837250898346,3.6581985915614195,4.069890041231769,1.597607129790988,1.1705502776713383,1.5749091304028915,5.530054993064684,4.7814624136170805,3.8935692550347,3.2566696121087695,-0.24652449432510304,1.073057132574973,-4.00244671858715],"standardError":1.1677470393103366,"tStat":4.415757451590306},{"label":"Intercept","coefficients":[5.234198546821074,7.025645855328876,5.115742383192332,5.806253375143956,7.135989914769129,4.663149512354278,5.649366888507064,3.02994912679326,5.7041280251897435,4.661114777809345,3.028753092549229,3.926852664448109,2.4741306229242963,4.6790727137944055,2.3411251432369293,2.835553800799531,4.958671314185575,4.9320205767177585,5.135162581052776,6.557636176118066,6.508197985666487,5.642346438077764,4.700133447979397,7.561689830757106,6.585656969699757,6.076379027300581,5.158579901976916,6.956017251365355,5.292976247621723,1.948666141329042,4.689398673984294,5.732895892325721,6.346550949375361,5.365178197958524,3.4644396026570106,1.0535765918415465,6.474682632163686,3.8197175320160466,3.4785853404847735,6.18551866678656,5.609816158648001,6.3372535567464245,3.1874694975300053,3.0264558127639454,3.872437660417652,5.414305126225463,4.54253223130717,5.988823635610707,5.6206929404287465,2.624803756506233,4.77424446826813,3.849668524204093,2.3066154788352877,5.27003952192767,2.8213132537427374,4.701396079535572,2.14569317015029,2.743673470121705,4.573508763739482,6.708095397375007,4.674915227775328,3.9591291449555044,1.4376839821285314,4.554010908081062,2.919458936450957,6.000647032703339,4.797853555458326,1.6497254244465651,5.656688808803728,2.7552166208649105,5.152525588534708,1.9431419767743443,6.324906675148551,6.467530253709182,1.0601502567305892,5.677975754206529,5.208280526254762,5.72809326852707,3.7600252108763477,0.8742851902507836,3.7654084920534885,4.884642547131972,5.813269290827209,4.155773502446775,3.764889920058619,3.0534115717880135,4.554754603861454,1.0999666659095644,0.9284759510825692,4.547105589889937,5.2747652562405385,2.795124159938008,3.440301657989013,0.24252075855033406,7.229597163158665,6.124552104718119,3.2128388587347416,5.696277063406026,2.781501642001962,5.516253717973495,2.9897850397776775,5.3521540138507975,4.404486606812154,3.3217771104592164,4.067523237828067,4.621052278875049,3.292565292796296,2.670265753526071,6.671677848307424,6.064245267668469,3.6555935780864077,1.6777979938710208,2.435584335069841,5.579274411282669,4.100484383276342,5.6522804057139036,6.314335465753772,2.7368906601342573,4.024645052011162,2.9833497372492204],"standardError":0.17844216634463977,"tStat":29.33274491137842}]}}